digraph Tree {
node [shape=box] ;
0 [label="Age <= 6.5\ngini = 0.473\nsamples = 891\nvalue = [549, 342]"] ;
1 [label="Age <= 0.96\ngini = 0.418\nsamples = 47\nvalue = [14, 33]"] ;
0 -> 1 [labeldistance=2.5, labelangle=45, headlabel="True"] ;
2 [label="gini = 0.0\nsamples = 7\nvalue = [0, 7]"] ;
1 -> 2 ;
3 [label="Age <= 2.5\ngini = 0.455\nsamples = 40\nvalue = [14, 26]"] ;
1 -> 3 ;
4 [label="Age <= 1.5\ngini = 0.498\nsamples = 17\nvalue = [9, 8]"] ;
3 -> 4 ;
5 [label="gini = 0.408\nsamples = 7\nvalue = [2, 5]"] ;
4 -> 5 ;
6 [label="gini = 0.42\nsamples = 10\nvalue = [7, 3]"] ;
4 -> 6 ;
7 [label="Age <= 4.5\ngini = 0.34\nsamples = 23\nvalue = [5, 18]"] ;
3 -> 7 ;
8 [label="Age <= 3.5\ngini = 0.375\nsamples = 16\nvalue = [4, 12]"] ;
7 -> 8 ;
9 [label="gini = 0.278\nsamples = 6\nvalue = [1, 5]"] ;
8 -> 9 ;
10 [label="gini = 0.42\nsamples = 10\nvalue = [3, 7]"] ;
8 -> 10 ;
11 [label="Age <= 5.5\ngini = 0.245\nsamples = 7\nvalue = [1, 6]"] ;
7 -> 11 ;
12 [label="gini = 0.0\nsamples = 4\nvalue = [0, 4]"] ;
11 -> 12 ;
13 [label="gini = 0.444\nsamples = 3\nvalue = [1, 2]"] ;
11 -> 13 ;
14 [label="Age <= 63.5\ngini = 0.464\nsamples = 844\nvalue = [535, 309]"] ;
0 -> 14 [labeldistance=2.5, labelangle=-45, headlabel="False"] ;
15 [label="Age <= 47.5\ngini = 0.467\nsamples = 831\nvalue = [523, 308]"] ;
14 -> 15 ;
16 [label="Age <= 45.25\ngini = 0.461\nsamples = 755\nvalue = [483, 272]"] ;
15 -> 16 ;
17 [label="Age <= 32.25\ngini = 0.464\nsamples = 741\nvalue = [470, 271]"] ;
16 -> 17 ;
18 [label="Age <= 31.5\ngini = 0.455\nsamples = 576\nvalue = [374, 202]"] ;
17 -> 18 ;
19 [label="Age <= 17.5\ngini = 0.466\nsamples = 381\nvalue = [240, 141]"] ;
18 -> 19 ;
20 [label="Age <= 11.5\ngini = 0.489\nsamples = 66\nvalue = [38, 28]"] ;
19 -> 20 ;
21 [label="Age <= 8.5\ngini = 0.408\nsamples = 21\nvalue = [15, 6]"] ;
20 -> 21 ;
22 [label="Age <= 7.5\ngini = 0.49\nsamples = 7\nvalue = [4, 3]"] ;
21 -> 22 ;
23 [label="gini = 0.444\nsamples = 3\nvalue = [2, 1]"] ;
22 -> 23 ;
24 [label="gini = 0.5\nsamples = 4\nvalue = [2, 2]"] ;
22 -> 24 ;
25 [label="Age <= 9.5\ngini = 0.337\nsamples = 14\nvalue = [11, 3]"] ;
21 -> 25 ;
26 [label="gini = 0.375\nsamples = 8\nvalue = [6, 2]"] ;
25 -> 26 ;
27 [label="Age <= 10.5\ngini = 0.278\nsamples = 6\nvalue = [5, 1]"] ;
25 -> 27 ;
28 [label="gini = 0.0\nsamples = 2\nvalue = [2, 0]"] ;
27 -> 28 ;
29 [label="gini = 0.375\nsamples = 4\nvalue = [3, 1]"] ;
27 -> 29 ;
30 [label="Age <= 13.5\ngini = 0.5\nsamples = 45\nvalue = [23, 22]"] ;
20 -> 30 ;
31 [label="gini = 0.0\nsamples = 3\nvalue = [0, 3]"] ;
30 -> 31 ;
32 [label="Age <= 15.5\ngini = 0.495\nsamples = 42\nvalue = [23, 19]"] ;
30 -> 32 ;
33 [label="Age <= 14.75\ngini = 0.486\nsamples = 12\nvalue = [5, 7]"] ;
32 -> 33 ;
34 [label="Age <= 14.25\ngini = 0.49\nsamples = 7\nvalue = [4, 3]"] ;
33 -> 34 ;
35 [label="gini = 0.5\nsamples = 6\nvalue = [3, 3]"] ;
34 -> 35 ;
36 [label="gini = 0.0\nsamples = 1\nvalue = [1, 0]"] ;
34 -> 36 ;
37 [label="gini = 0.32\nsamples = 5\nvalue = [1, 4]"] ;
33 -> 37 ;
38 [label="Age <= 16.5\ngini = 0.48\nsamples = 30\nvalue = [18, 12]"] ;
32 -> 38 ;
39 [label="gini = 0.457\nsamples = 17\nvalue = [11, 6]"] ;
38 -> 39 ;
40 [label="gini = 0.497\nsamples = 13\nvalue = [7, 6]"] ;
38 -> 40 ;
41 [label="Age <= 21.5\ngini = 0.46\nsamples = 315\nvalue = [202, 113]"] ;
19 -> 41 ;
42 [label="Age <= 19.5\ngini = 0.408\nsamples = 91\nvalue = [65, 26]"] ;
41 -> 42 ;
43 [label="Age <= 18.5\ngini = 0.457\nsamples = 51\nvalue = [33, 18]"] ;
42 -> 43 ;
44 [label="gini = 0.453\nsamples = 26\nvalue = [17, 9]"] ;
43 -> 44 ;
45 [label="gini = 0.461\nsamples = 25\nvalue = [16, 9]"] ;
43 -> 45 ;
46 [label="Age <= 20.75\ngini = 0.32\nsamples = 40\nvalue = [32, 8]"] ;
42 -> 46 ;
47 [label="Age <= 20.25\ngini = 0.305\nsamples = 16\nvalue = [13, 3]"] ;
46 -> 47 ;
48 [label="gini = 0.32\nsamples = 15\nvalue = [12, 3]"] ;
47 -> 48 ;
49 [label="gini = 0.0\nsamples = 1\nvalue = [1, 0]"] ;
47 -> 49 ;
50 [label="gini = 0.33\nsamples = 24\nvalue = [19, 5]"] ;
46 -> 50 ;
51 [label="Age <= 24.25\ngini = 0.475\nsamples = 224\nvalue = [137, 87]"] ;
41 -> 51 ;
52 [label="Age <= 23.75\ngini = 0.489\nsamples = 73\nvalue = [42, 31]"] ;
51 -> 52 ;
53 [label="Age <= 23.25\ngini = 0.467\nsamples = 43\nvalue = [27, 16]"] ;
52 -> 53 ;
54 [label="Age <= 22.5\ngini = 0.472\nsamples = 42\nvalue = [26, 16]"] ;
53 -> 54 ;
55 [label="gini = 0.483\nsamples = 27\nvalue = [16, 11]"] ;
54 -> 55 ;
56 [label="gini = 0.444\nsamples = 15\nvalue = [10, 5]"] ;
54 -> 56 ;
57 [label="gini = 0.0\nsamples = 1\nvalue = [1, 0]"] ;
53 -> 57 ;
58 [label="gini = 0.5\nsamples = 30\nvalue = [15, 15]"] ;
52 -> 58 ;
59 [label="Age <= 26.5\ngini = 0.467\nsamples = 151\nvalue = [95, 56]"] ;
51 -> 59 ;
60 [label="Age <= 24.75\ngini = 0.408\nsamples = 42\nvalue = [30, 12]"] ;
59 -> 60 ;
61 [label="gini = 0.0\nsamples = 1\nvalue = [1, 0]"] ;
60 -> 61 ;
62 [label="Age <= 25.5\ngini = 0.414\nsamples = 41\nvalue = [29, 12]"] ;
60 -> 62 ;
63 [label="gini = 0.386\nsamples = 23\nvalue = [17, 6]"] ;
62 -> 63 ;
64 [label="gini = 0.444\nsamples = 18\nvalue = [12, 6]"] ;
62 -> 64 ;
65 [label="Age <= 27.5\ngini = 0.481\nsamples = 109\nvalue = [65, 44]"] ;
59 -> 65 ;
66 [label="gini = 0.475\nsamples = 18\nvalue = [7, 11]"] ;
65 -> 66 ;
67 [label="Age <= 28.75\ngini = 0.462\nsamples = 91\nvalue = [58, 33]"] ;
65 -> 67 ;
68 [label="Age <= 28.25\ngini = 0.384\nsamples = 27\nvalue = [20, 7]"] ;
67 -> 68 ;
69 [label="gini = 0.403\nsamples = 25\nvalue = [18, 7]"] ;
68 -> 69 ;
70 [label="gini = 0.0\nsamples = 2\nvalue = [2, 0]"] ;
68 -> 70 ;
71 [label="Age <= 30.75\ngini = 0.482\nsamples = 64\nvalue = [38, 26]"] ;
67 -> 71 ;
72 [label="Age <= 30.25\ngini = 0.473\nsamples = 47\nvalue = [29, 18]"] ;
71 -> 72 ;
73 [label="Age <= 29.5\ngini = 0.48\nsamples = 45\nvalue = [27, 18]"] ;
72 -> 73 ;
74 [label="gini = 0.48\nsamples = 20\nvalue = [12, 8]"] ;
73 -> 74 ;
75 [label="gini = 0.48\nsamples = 25\nvalue = [15, 10]"] ;
73 -> 75 ;
76 [label="gini = 0.0\nsamples = 2\nvalue = [2, 0]"] ;
72 -> 76 ;
77 [label="gini = 0.498\nsamples = 17\nvalue = [9, 8]"] ;
71 -> 77 ;
78 [label="gini = 0.43\nsamples = 195\nvalue = [134, 61]"] ;
18 -> 78 ;
79 [label="Age <= 36.25\ngini = 0.487\nsamples = 165\nvalue = [96, 69]"] ;
17 -> 79 ;
80 [label="Age <= 34.75\ngini = 0.499\nsamples = 73\nvalue = [38, 35]"] ;
79 -> 80 ;
81 [label="Age <= 34.25\ngini = 0.478\nsamples = 33\nvalue = [20, 13]"] ;
80 -> 81 ;
82 [label="Age <= 32.75\ngini = 0.482\nsamples = 32\nvalue = [19, 13]"] ;
81 -> 82 ;
83 [label="gini = 0.5\nsamples = 2\nvalue = [1, 1]"] ;
82 -> 83 ;
84 [label="Age <= 33.5\ngini = 0.48\nsamples = 30\nvalue = [18, 12]"] ;
82 -> 84 ;
85 [label="gini = 0.48\nsamples = 15\nvalue = [9, 6]"] ;
84 -> 85 ;
86 [label="gini = 0.48\nsamples = 15\nvalue = [9, 6]"] ;
84 -> 86 ;
87 [label="gini = 0.0\nsamples = 1\nvalue = [1, 0]"] ;
81 -> 87 ;
88 [label="Age <= 35.5\ngini = 0.495\nsamples = 40\nvalue = [18, 22]"] ;
80 -> 88 ;
89 [label="gini = 0.475\nsamples = 18\nvalue = [7, 11]"] ;
88 -> 89 ;
90 [label="gini = 0.5\nsamples = 22\nvalue = [11, 11]"] ;
88 -> 90 ;
91 [label="Age <= 37.5\ngini = 0.466\nsamples = 92\nvalue = [58, 34]"] ;
79 -> 91 ;
92 [label="Age <= 36.75\ngini = 0.245\nsamples = 7\nvalue = [6, 1]"] ;
91 -> 92 ;
93 [label="gini = 0.0\nsamples = 1\nvalue = [1, 0]"] ;
92 -> 93 ;
94 [label="gini = 0.278\nsamples = 6\nvalue = [5, 1]"] ;
92 -> 94 ;
95 [label="Age <= 40.25\ngini = 0.475\nsamples = 85\nvalue = [52, 33]"] ;
91 -> 95 ;
96 [label="Age <= 39.5\ngini = 0.488\nsamples = 38\nvalue = [22, 16]"] ;
95 -> 96 ;
97 [label="Age <= 38.5\ngini = 0.48\nsamples = 25\nvalue = [15, 10]"] ;
96 -> 97 ;
98 [label="gini = 0.496\nsamples = 11\nvalue = [6, 5]"] ;
97 -> 98 ;
99 [label="gini = 0.459\nsamples = 14\nvalue = [9, 5]"] ;
97 -> 99 ;
100 [label="gini = 0.497\nsamples = 13\nvalue = [7, 6]"] ;
96 -> 100 ;
101 [label="Age <= 40.75\ngini = 0.462\nsamples = 47\nvalue = [30, 17]"] ;
95 -> 101 ;
102 [label="gini = 0.0\nsamples = 2\nvalue = [2, 0]"] ;
101 -> 102 ;
103 [label="Age <= 42.5\ngini = 0.47\nsamples = 45\nvalue = [28, 17]"] ;
101 -> 103 ;
104 [label="Age <= 41.5\ngini = 0.488\nsamples = 19\nvalue = [11, 8]"] ;
103 -> 104 ;
105 [label="gini = 0.444\nsamples = 6\nvalue = [4, 2]"] ;
104 -> 105 ;
106 [label="gini = 0.497\nsamples = 13\nvalue = [7, 6]"] ;
104 -> 106 ;
107 [label="Age <= 43.5\ngini = 0.453\nsamples = 26\nvalue = [17, 9]"] ;
103 -> 107 ;
108 [label="gini = 0.32\nsamples = 5\nvalue = [4, 1]"] ;
107 -> 108 ;
109 [label="Age <= 44.5\ngini = 0.472\nsamples = 21\nvalue = [13, 8]"] ;
107 -> 109 ;
110 [label="gini = 0.444\nsamples = 9\nvalue = [6, 3]"] ;
109 -> 110 ;
111 [label="gini = 0.486\nsamples = 12\nvalue = [7, 5]"] ;
109 -> 111 ;
112 [label="Age <= 46.5\ngini = 0.133\nsamples = 14\nvalue = [13, 1]"] ;
16 -> 112 ;
113 [label="gini = 0.0\nsamples = 5\nvalue = [5, 0]"] ;
112 -> 113 ;
114 [label="gini = 0.198\nsamples = 9\nvalue = [8, 1]"] ;
112 -> 114 ;
115 [label="Age <= 49.5\ngini = 0.499\nsamples = 76\nvalue = [40, 36]"] ;
15 -> 115 ;
116 [label="Age <= 48.5\ngini = 0.444\nsamples = 15\nvalue = [5, 10]"] ;
115 -> 116 ;
117 [label="gini = 0.444\nsamples = 9\nvalue = [3, 6]"] ;
116 -> 117 ;
118 [label="gini = 0.444\nsamples = 6\nvalue = [2, 4]"] ;
116 -> 118 ;
119 [label="Age <= 62.5\ngini = 0.489\nsamples = 61\nvalue = [35, 26]"] ;
115 -> 119 ;
120 [label="Age <= 58.5\ngini = 0.483\nsamples = 59\nvalue = [35, 24]"] ;
119 -> 120 ;
121 [label="Age <= 57.5\ngini = 0.491\nsamples = 46\nvalue = [26, 20]"] ;
120 -> 121 ;
122 [label="Age <= 56.5\ngini = 0.485\nsamples = 41\nvalue = [24, 17]"] ;
121 -> 122 ;
123 [label="Age <= 50.5\ngini = 0.492\nsamples = 39\nvalue = [22, 17]"] ;
122 -> 123 ;
124 [label="gini = 0.5\nsamples = 10\nvalue = [5, 5]"] ;
123 -> 124 ;
125 [label="Age <= 51.5\ngini = 0.485\nsamples = 29\nvalue = [17, 12]"] ;
123 -> 125 ;
126 [label="gini = 0.408\nsamples = 7\nvalue = [5, 2]"] ;
125 -> 126 ;
127 [label="Age <= 53.5\ngini = 0.496\nsamples = 22\nvalue = [12, 10]"] ;
125 -> 127 ;
128 [label="Age <= 52.5\ngini = 0.49\nsamples = 7\nvalue = [3, 4]"] ;
127 -> 128 ;
129 [label="gini = 0.5\nsamples = 6\nvalue = [3, 3]"] ;
128 -> 129 ;
130 [label="gini = 0.0\nsamples = 1\nvalue = [0, 1]"] ;
128 -> 130 ;
131 [label="Age <= 55.75\ngini = 0.48\nsamples = 15\nvalue = [9, 6]"] ;
127 -> 131 ;
132 [label="Age <= 55.25\ngini = 0.463\nsamples = 11\nvalue = [7, 4]"] ;
131 -> 132 ;
133 [label="Age <= 54.5\ngini = 0.48\nsamples = 10\nvalue = [6, 4]"] ;
132 -> 133 ;
134 [label="gini = 0.469\nsamples = 8\nvalue = [5, 3]"] ;
133 -> 134 ;
135 [label="gini = 0.5\nsamples = 2\nvalue = [1, 1]"] ;
133 -> 135 ;
136 [label="gini = 0.0\nsamples = 1\nvalue = [1, 0]"] ;
132 -> 136 ;
137 [label="gini = 0.5\nsamples = 4\nvalue = [2, 2]"] ;
131 -> 137 ;
138 [label="gini = 0.0\nsamples = 2\nvalue = [2, 0]"] ;
122 -> 138 ;
139 [label="gini = 0.48\nsamples = 5\nvalue = [2, 3]"] ;
121 -> 139 ;
140 [label="Age <= 59.5\ngini = 0.426\nsamples = 13\nvalue = [9, 4]"] ;
120 -> 140 ;
141 [label="gini = 0.0\nsamples = 2\nvalue = [2, 0]"] ;
140 -> 141 ;
142 [label="Age <= 60.5\ngini = 0.463\nsamples = 11\nvalue = [7, 4]"] ;
140 -> 142 ;
143 [label="gini = 0.5\nsamples = 4\nvalue = [2, 2]"] ;
142 -> 143 ;
144 [label="Age <= 61.5\ngini = 0.408\nsamples = 7\nvalue = [5, 2]"] ;
142 -> 144 ;
145 [label="gini = 0.0\nsamples = 3\nvalue = [3, 0]"] ;
144 -> 145 ;
146 [label="gini = 0.5\nsamples = 4\nvalue = [2, 2]"] ;
144 -> 146 ;
147 [label="gini = 0.0\nsamples = 2\nvalue = [0, 2]"] ;
119 -> 147 ;
148 [label="Age <= 77.0\ngini = 0.142\nsamples = 13\nvalue = [12, 1]"] ;
14 -> 148 ;
149 [label="gini = 0.0\nsamples = 12\nvalue = [12, 0]"] ;
148 -> 149 ;
150 [label="gini = 0.0\nsamples = 1\nvalue = [0, 1]"] ;
148 -> 150 ;
}