digraph Tree {
node [shape=box] ;
0 [label="Fare <= 10.481\ngini = 0.473\nsamples = 891\nvalue = [549, 342]"] ;
1 [label="Fare <= 7.133\ngini = 0.317\nsamples = 339\nvalue = [272, 67]"] ;
0 -> 1 [labeldistance=2.5, labelangle=45, headlabel="True"] ;
2 [label="Fare <= 7.01\ngini = 0.091\nsamples = 42\nvalue = [40, 2]"] ;
1 -> 2 ;
3 [label="Fare <= 6.962\ngini = 0.133\nsamples = 28\nvalue = [26, 2]"] ;
2 -> 3 ;
4 [label="Fare <= 2.006\ngini = 0.074\nsamples = 26\nvalue = [25, 1]"] ;
3 -> 4 ;
5 [label="gini = 0.124\nsamples = 15\nvalue = [14, 1]"] ;
4 -> 5 ;
6 [label="gini = 0.0\nsamples = 11\nvalue = [11, 0]"] ;
4 -> 6 ;
7 [label="gini = 0.5\nsamples = 2\nvalue = [1, 1]"] ;
3 -> 7 ;
8 [label="gini = 0.0\nsamples = 14\nvalue = [14, 0]"] ;
2 -> 8 ;
9 [label="Fare <= 7.883\ngini = 0.342\nsamples = 297\nvalue = [232, 65]"] ;
1 -> 9 ;
10 [label="Fare <= 7.877\ngini = 0.411\nsamples = 142\nvalue = [101, 41]"] ;
9 -> 10 ;
11 [label="Fare <= 7.183\ngini = 0.392\nsamples = 138\nvalue = [101, 37]"] ;
10 -> 11 ;
12 [label="gini = 0.0\nsamples = 1\nvalue = [0, 1]"] ;
11 -> 12 ;
13 [label="Fare <= 7.731\ngini = 0.387\nsamples = 137\nvalue = [101, 36]"] ;
11 -> 13 ;
14 [label="Fare <= 7.24\ngini = 0.316\nsamples = 56\nvalue = [45, 11]"] ;
13 -> 14 ;
15 [label="Fare <= 7.227\ngini = 0.384\nsamples = 27\nvalue = [20, 7]"] ;
14 -> 15 ;
16 [label="gini = 0.375\nsamples = 12\nvalue = [9, 3]"] ;
15 -> 16 ;
17 [label="gini = 0.391\nsamples = 15\nvalue = [11, 4]"] ;
15 -> 17 ;
18 [label="Fare <= 7.404\ngini = 0.238\nsamples = 29\nvalue = [25, 4]"] ;
14 -> 18 ;
19 [label="Fare <= 7.281\ngini = 0.133\nsamples = 14\nvalue = [13, 1]"] ;
18 -> 19 ;
20 [label="gini = 0.142\nsamples = 13\nvalue = [12, 1]"] ;
19 -> 20 ;
21 [label="gini = 0.0\nsamples = 1\nvalue = [1, 0]"] ;
19 -> 21 ;
22 [label="Fare <= 7.688\ngini = 0.32\nsamples = 15\nvalue = [12, 3]"] ;
18 -> 22 ;
23 [label="Fare <= 7.508\ngini = 0.355\nsamples = 13\nvalue = [10, 3]"] ;
22 -> 23 ;
24 [label="gini = 0.444\nsamples = 3\nvalue = [2, 1]"] ;
23 -> 24 ;
25 [label="Fare <= 7.535\ngini = 0.32\nsamples = 10\nvalue = [8, 2]"] ;
23 -> 25 ;
26 [label="gini = 0.0\nsamples = 1\nvalue = [1, 0]"] ;
25 -> 26 ;
27 [label="Fare <= 7.59\ngini = 0.346\nsamples = 9\nvalue = [7, 2]"] ;
25 -> 27 ;
28 [label="gini = 0.375\nsamples = 4\nvalue = [3, 1]"] ;
27 -> 28 ;
29 [label="Fare <= 7.64\ngini = 0.32\nsamples = 5\nvalue = [4, 1]"] ;
27 -> 29 ;
30 [label="gini = 0.0\nsamples = 1\nvalue = [1, 0]"] ;
29 -> 30 ;
31 [label="gini = 0.375\nsamples = 4\nvalue = [3, 1]"] ;
29 -> 31 ;
32 [label="gini = 0.0\nsamples = 2\nvalue = [2, 0]"] ;
22 -> 32 ;
33 [label="Fare <= 7.763\ngini = 0.427\nsamples = 81\nvalue = [56, 25]"] ;
13 -> 33 ;
34 [label="Fare <= 7.74\ngini = 0.464\nsamples = 41\nvalue = [26, 15]"] ;
33 -> 34 ;
35 [label="Fare <= 7.735\ngini = 0.5\nsamples = 6\nvalue = [3, 3]"] ;
34 -> 35 ;
36 [label="gini = 0.5\nsamples = 4\nvalue = [2, 2]"] ;
35 -> 36 ;
37 [label="gini = 0.5\nsamples = 2\nvalue = [1, 1]"] ;
35 -> 37 ;
38 [label="Fare <= 7.746\ngini = 0.451\nsamples = 35\nvalue = [23, 12]"] ;
34 -> 38 ;
39 [label="gini = 0.0\nsamples = 1\nvalue = [1, 0]"] ;
38 -> 39 ;
40 [label="gini = 0.457\nsamples = 34\nvalue = [22, 12]"] ;
38 -> 40 ;
41 [label="Fare <= 7.781\ngini = 0.375\nsamples = 40\nvalue = [30, 10]"] ;
33 -> 41 ;
42 [label="gini = 0.305\nsamples = 16\nvalue = [13, 3]"] ;
41 -> 42 ;
43 [label="Fare <= 7.792\ngini = 0.413\nsamples = 24\nvalue = [17, 7]"] ;
41 -> 43 ;
44 [label="gini = 0.0\nsamples = 1\nvalue = [0, 1]"] ;
43 -> 44 ;
45 [label="Fare <= 7.842\ngini = 0.386\nsamples = 23\nvalue = [17, 6]"] ;
43 -> 45 ;
46 [label="Fare <= 7.815\ngini = 0.444\nsamples = 9\nvalue = [6, 3]"] ;
45 -> 46 ;
47 [label="Fare <= 7.798\ngini = 0.408\nsamples = 7\nvalue = [5, 2]"] ;
46 -> 47 ;
48 [label="gini = 0.444\nsamples = 6\nvalue = [4, 2]"] ;
47 -> 48 ;
49 [label="gini = 0.0\nsamples = 1\nvalue = [1, 0]"] ;
47 -> 49 ;
50 [label="gini = 0.5\nsamples = 2\nvalue = [1, 1]"] ;
46 -> 50 ;
51 [label="Fare <= 7.865\ngini = 0.337\nsamples = 14\nvalue = [11, 3]"] ;
45 -> 51 ;
52 [label="gini = 0.355\nsamples = 13\nvalue = [10, 3]"] ;
51 -> 52 ;
53 [label="gini = 0.0\nsamples = 1\nvalue = [1, 0]"] ;
51 -> 53 ;
54 [label="gini = 0.0\nsamples = 4\nvalue = [0, 4]"] ;
10 -> 54 ;
55 [label="Fare <= 7.91\ngini = 0.262\nsamples = 155\nvalue = [131, 24]"] ;
9 -> 55 ;
56 [label="Fare <= 7.892\ngini = 0.05\nsamples = 39\nvalue = [38, 1]"] ;
55 -> 56 ;
57 [label="gini = 0.0\nsamples = 1\nvalue = [1, 0]"] ;
56 -> 57 ;
58 [label="gini = 0.051\nsamples = 38\nvalue = [37, 1]"] ;
56 -> 58 ;
59 [label="Fare <= 8.04\ngini = 0.318\nsamples = 116\nvalue = [93, 23]"] ;
55 -> 59 ;
60 [label="Fare <= 7.977\ngini = 0.499\nsamples = 19\nvalue = [10, 9]"] ;
59 -> 60 ;
61 [label="gini = 0.494\nsamples = 18\nvalue = [10, 8]"] ;
60 -> 61 ;
62 [label="gini = 0.0\nsamples = 1\nvalue = [0, 1]"] ;
60 -> 62 ;
63 [label="Fare <= 9.288\ngini = 0.247\nsamples = 97\nvalue = [83, 14]"] ;
59 -> 63 ;
64 [label="Fare <= 8.698\ngini = 0.214\nsamples = 74\nvalue = [65, 9]"] ;
63 -> 64 ;
65 [label="Fare <= 8.673\ngini = 0.233\nsamples = 67\nvalue = [58, 9]"] ;
64 -> 65 ;
66 [label="Fare <= 8.585\ngini = 0.213\nsamples = 66\nvalue = [58, 8]"] ;
65 -> 66 ;
67 [label="Fare <= 8.487\ngini = 0.233\nsamples = 52\nvalue = [45, 7]"] ;
66 -> 67 ;
68 [label="Fare <= 8.125\ngini = 0.208\nsamples = 51\nvalue = [45, 6]"] ;
67 -> 68 ;
69 [label="Fare <= 8.081\ngini = 0.236\nsamples = 44\nvalue = [38, 6]"] ;
68 -> 69 ;
70 [label="gini = 0.206\nsamples = 43\nvalue = [38, 5]"] ;
69 -> 70 ;
71 [label="gini = 0.0\nsamples = 1\nvalue = [0, 1]"] ;
69 -> 71 ;
72 [label="gini = 0.0\nsamples = 7\nvalue = [7, 0]"] ;
68 -> 72 ;
73 [label="gini = 0.0\nsamples = 1\nvalue = [0, 1]"] ;
67 -> 73 ;
74 [label="Fare <= 8.658\ngini = 0.133\nsamples = 14\nvalue = [13, 1]"] ;
66 -> 74 ;
75 [label="gini = 0.0\nsamples = 1\nvalue = [1, 0]"] ;
74 -> 75 ;
76 [label="gini = 0.142\nsamples = 13\nvalue = [12, 1]"] ;
74 -> 76 ;
77 [label="gini = 0.0\nsamples = 1\nvalue = [0, 1]"] ;
65 -> 77 ;
78 [label="gini = 0.0\nsamples = 7\nvalue = [7, 0]"] ;
64 -> 78 ;
79 [label="Fare <= 9.844\ngini = 0.34\nsamples = 23\nvalue = [18, 5]"] ;
63 -> 79 ;
80 [label="Fare <= 9.84\ngini = 0.388\nsamples = 19\nvalue = [14, 5]"] ;
79 -> 80 ;
81 [label="Fare <= 9.706\ngini = 0.346\nsamples = 18\nvalue = [14, 4]"] ;
80 -> 81 ;
82 [label="Fare <= 9.413\ngini = 0.391\nsamples = 15\nvalue = [11, 4]"] ;
81 -> 82 ;
83 [label="gini = 0.5\nsamples = 2\nvalue = [1, 1]"] ;
82 -> 83 ;
84 [label="Fare <= 9.544\ngini = 0.355\nsamples = 13\nvalue = [10, 3]"] ;
82 -> 84 ;
85 [label="Fare <= 9.492\ngini = 0.298\nsamples = 11\nvalue = [9, 2]"] ;
84 -> 85 ;
86 [label="gini = 0.0\nsamples = 2\nvalue = [2, 0]"] ;
85 -> 86 ;
87 [label="gini = 0.346\nsamples = 9\nvalue = [7, 2]"] ;
85 -> 87 ;
88 [label="gini = 0.5\nsamples = 2\nvalue = [1, 1]"] ;
84 -> 88 ;
89 [label="gini = 0.0\nsamples = 3\nvalue = [3, 0]"] ;
81 -> 89 ;
90 [label="gini = 0.0\nsamples = 1\nvalue = [0, 1]"] ;
80 -> 90 ;
91 [label="gini = 0.0\nsamples = 4\nvalue = [4, 0]"] ;
79 -> 91 ;
92 [label="Fare <= 74.375\ngini = 0.5\nsamples = 552\nvalue = [277, 275]"] ;
0 -> 92 [labeldistance=2.5, labelangle=-45, headlabel="False"] ;
93 [label="Fare <= 69.425\ngini = 0.493\nsamples = 455\nvalue = [254, 201]"] ;
92 -> 93 ;
94 [label="Fare <= 52.277\ngini = 0.495\nsamples = 440\nvalue = [241, 199]"] ;
93 -> 94 ;
95 [label="Fare <= 39.644\ngini = 0.489\nsamples = 403\nvalue = [232, 171]"] ;
94 -> 95 ;
96 [label="Fare <= 35.25\ngini = 0.492\nsamples = 370\nvalue = [208, 162]"] ;
95 -> 96 ;
97 [label="Fare <= 33.25\ngini = 0.49\nsamples = 354\nvalue = [202, 152]"] ;
96 -> 97 ;
98 [label="Fare <= 15.646\ngini = 0.493\nsamples = 346\nvalue = [194, 152]"] ;
97 -> 98 ;
99 [label="Fare <= 13.931\ngini = 0.476\nsamples = 136\nvalue = [83, 53]"] ;
98 -> 99 ;
100 [label="Fare <= 13.646\ngini = 0.496\nsamples = 97\nvalue = [53, 44]"] ;
99 -> 100 ;
101 [label="Fare <= 12.762\ngini = 0.492\nsamples = 94\nvalue = [53, 41]"] ;
100 -> 101 ;
102 [label="Fare <= 12.281\ngini = 0.5\nsamples = 46\nvalue = [23, 23]"] ;
101 -> 102 ;
103 [label="Fare <= 11.371\ngini = 0.486\nsamples = 36\nvalue = [21, 15]"] ;
102 -> 103 ;
104 [label="Fare <= 10.825\ngini = 0.498\nsamples = 30\nvalue = [16, 14]"] ;
103 -> 104 ;
105 [label="Fare <= 10.508\ngini = 0.461\nsamples = 25\nvalue = [16, 9]"] ;
104 -> 105 ;
106 [label="gini = 0.469\nsamples = 24\nvalue = [15, 9]"] ;
105 -> 106 ;
107 [label="gini = 0.0\nsamples = 1\nvalue = [1, 0]"] ;
105 -> 107 ;
108 [label="gini = 0.0\nsamples = 5\nvalue = [0, 5]"] ;
104 -> 108 ;
109 [label="Fare <= 11.75\ngini = 0.278\nsamples = 6\nvalue = [5, 1]"] ;
103 -> 109 ;
110 [label="gini = 0.0\nsamples = 4\nvalue = [4, 0]"] ;
109 -> 110 ;
111 [label="Fare <= 12.137\ngini = 0.5\nsamples = 2\nvalue = [1, 1]"] ;
109 -> 111 ;
112 [label="gini = 0.0\nsamples = 1\nvalue = [0, 1]"] ;
111 -> 112 ;
113 [label="gini = 0.0\nsamples = 1\nvalue = [1, 0]"] ;
111 -> 113 ;
114 [label="Fare <= 12.5\ngini = 0.32\nsamples = 10\nvalue = [2, 8]"] ;
102 -> 114 ;
115 [label="Fare <= 12.413\ngini = 0.219\nsamples = 8\nvalue = [1, 7]"] ;
114 -> 115 ;
116 [label="Fare <= 12.319\ngini = 0.375\nsamples = 4\nvalue = [1, 3]"] ;
115 -> 116 ;
117 [label="gini = 0.0\nsamples = 1\nvalue = [0, 1]"] ;
116 -> 117 ;
118 [label="gini = 0.444\nsamples = 3\nvalue = [1, 2]"] ;
116 -> 118 ;
119 [label="gini = 0.0\nsamples = 4\nvalue = [0, 4]"] ;
115 -> 119 ;
120 [label="Fare <= 12.587\ngini = 0.5\nsamples = 2\nvalue = [1, 1]"] ;
114 -> 120 ;
121 [label="gini = 0.0\nsamples = 1\nvalue = [1, 0]"] ;
120 -> 121 ;
122 [label="gini = 0.0\nsamples = 1\nvalue = [0, 1]"] ;
120 -> 122 ;
123 [label="Fare <= 12.938\ngini = 0.469\nsamples = 48\nvalue = [30, 18]"] ;
101 -> 123 ;
124 [label="gini = 0.0\nsamples = 1\nvalue = [1, 0]"] ;
123 -> 124 ;
125 [label="Fare <= 13.458\ngini = 0.473\nsamples = 47\nvalue = [29, 18]"] ;
123 -> 125 ;
126 [label="Fare <= 13.208\ngini = 0.478\nsamples = 43\nvalue = [26, 17]"] ;
125 -> 126 ;
127 [label="gini = 0.472\nsamples = 42\nvalue = [26, 16]"] ;
126 -> 127 ;
128 [label="gini = 0.0\nsamples = 1\nvalue = [0, 1]"] ;
126 -> 128 ;
129 [label="gini = 0.375\nsamples = 4\nvalue = [3, 1]"] ;
125 -> 129 ;
130 [label="gini = 0.0\nsamples = 3\nvalue = [0, 3]"] ;
100 -> 130 ;
131 [label="Fare <= 15.173\ngini = 0.355\nsamples = 39\nvalue = [30, 9]"] ;
99 -> 131 ;
132 [label="Fare <= 14.479\ngini = 0.211\nsamples = 25\nvalue = [22, 3]"] ;
131 -> 132 ;
133 [label="Fare <= 14.427\ngini = 0.133\nsamples = 14\nvalue = [13, 1]"] ;
132 -> 133 ;
134 [label="gini = 0.0\nsamples = 4\nvalue = [4, 0]"] ;
133 -> 134 ;
135 [label="Fare <= 14.456\ngini = 0.18\nsamples = 10\nvalue = [9, 1]"] ;
133 -> 135 ;
136 [label="gini = 0.245\nsamples = 7\nvalue = [6, 1]"] ;
135 -> 136 ;
137 [label="gini = 0.0\nsamples = 3\nvalue = [3, 0]"] ;
135 -> 137 ;
138 [label="Fare <= 14.75\ngini = 0.298\nsamples = 11\nvalue = [9, 2]"] ;
132 -> 138 ;
139 [label="gini = 0.408\nsamples = 7\nvalue = [5, 2]"] ;
138 -> 139 ;
140 [label="gini = 0.0\nsamples = 4\nvalue = [4, 0]"] ;
138 -> 140 ;
141 [label="Fare <= 15.373\ngini = 0.49\nsamples = 14\nvalue = [8, 6]"] ;
131 -> 141 ;
142 [label="gini = 0.48\nsamples = 5\nvalue = [2, 3]"] ;
141 -> 142 ;
143 [label="Fare <= 15.525\ngini = 0.444\nsamples = 9\nvalue = [6, 3]"] ;
141 -> 143 ;
144 [label="gini = 0.469\nsamples = 8\nvalue = [5, 3]"] ;
143 -> 144 ;
145 [label="gini = 0.0\nsamples = 1\nvalue = [1, 0]"] ;
143 -> 145 ;
146 [label="Fare <= 16.05\ngini = 0.498\nsamples = 210\nvalue = [111, 99]"] ;
98 -> 146 ;
147 [label="Fare <= 15.8\ngini = 0.32\nsamples = 10\nvalue = [2, 8]"] ;
146 -> 147 ;
148 [label="gini = 0.0\nsamples = 3\nvalue = [0, 3]"] ;
147 -> 148 ;
149 [label="Fare <= 15.875\ngini = 0.408\nsamples = 7\nvalue = [2, 5]"] ;
147 -> 149 ;
150 [label="gini = 0.5\nsamples = 4\nvalue = [2, 2]"] ;
149 -> 150 ;
151 [label="gini = 0.0\nsamples = 3\nvalue = [0, 3]"] ;
149 -> 151 ;
152 [label="Fare <= 16.4\ngini = 0.496\nsamples = 200\nvalue = [109, 91]"] ;
146 -> 152 ;
153 [label="gini = 0.346\nsamples = 9\nvalue = [7, 2]"] ;
152 -> 153 ;
154 [label="Fare <= 19.733\ngini = 0.498\nsamples = 191\nvalue = [102, 89]"] ;
152 -> 154 ;
155 [label="Fare <= 18.375\ngini = 0.432\nsamples = 19\nvalue = [6, 13]"] ;
154 -> 155 ;
156 [label="Fare <= 17.6\ngini = 0.469\nsamples = 8\nvalue = [5, 3]"] ;
155 -> 156 ;
157 [label="gini = 0.0\nsamples = 3\nvalue = [0, 3]"] ;
156 -> 157 ;
158 [label="gini = 0.0\nsamples = 5\nvalue = [5, 0]"] ;
156 -> 158 ;
159 [label="Fare <= 19.023\ngini = 0.165\nsamples = 11\nvalue = [1, 10]"] ;
155 -> 159 ;
160 [label="Fare <= 18.769\ngini = 0.32\nsamples = 5\nvalue = [1, 4]"] ;
159 -> 160 ;
161 [label="gini = 0.0\nsamples = 3\nvalue = [0, 3]"] ;
160 -> 161 ;
162 [label="gini = 0.5\nsamples = 2\nvalue = [1, 1]"] ;
160 -> 162 ;
163 [label="gini = 0.0\nsamples = 6\nvalue = [0, 6]"] ;
159 -> 163 ;
164 [label="Fare <= 20.231\ngini = 0.493\nsamples = 172\nvalue = [96, 76]"] ;
154 -> 164 ;
165 [label="gini = 0.0\nsamples = 4\nvalue = [4, 0]"] ;
164 -> 165 ;
166 [label="Fare <= 31.331\ngini = 0.495\nsamples = 168\nvalue = [92, 76]"] ;
164 -> 166 ;
167 [label="Fare <= 31.137\ngini = 0.493\nsamples = 159\nvalue = [89, 70]"] ;
166 -> 167 ;
168 [label="Fare <= 29.85\ngini = 0.497\nsamples = 152\nvalue = [82, 70]"] ;
167 -> 168 ;
169 [label="Fare <= 27.36\ngini = 0.491\nsamples = 134\nvalue = [76, 58]"] ;
168 -> 169 ;
170 [label="Fare <= 25.927\ngini = 0.5\nsamples = 107\nvalue = [55, 52]"] ;
169 -> 170 ;
171 [label="Fare <= 23.35\ngini = 0.466\nsamples = 46\nvalue = [29, 17]"] ;
170 -> 171 ;
172 [label="Fare <= 21.852\ngini = 0.497\nsamples = 28\nvalue = [13, 15]"] ;
171 -> 172 ;
173 [label="Fare <= 21.038\ngini = 0.444\nsamples = 18\nvalue = [12, 6]"] ;
172 -> 173 ;
174 [label="Fare <= 20.788\ngini = 0.497\nsamples = 13\nvalue = [7, 6]"] ;
173 -> 174 ;
175 [label="Fare <= 20.387\ngini = 0.49\nsamples = 7\nvalue = [3, 4]"] ;
174 -> 175 ;
176 [label="gini = 0.5\nsamples = 2\nvalue = [1, 1]"] ;
175 -> 176 ;
177 [label="Fare <= 20.55\ngini = 0.48\nsamples = 5\nvalue = [2, 3]"] ;
175 -> 177 ;
178 [label="gini = 0.444\nsamples = 3\nvalue = [1, 2]"] ;
177 -> 178 ;
179 [label="gini = 0.5\nsamples = 2\nvalue = [1, 1]"] ;
177 -> 179 ;
180 [label="gini = 0.444\nsamples = 6\nvalue = [4, 2]"] ;
174 -> 180 ;
181 [label="gini = 0.0\nsamples = 5\nvalue = [5, 0]"] ;
173 -> 181 ;
182 [label="Fare <= 22.762\ngini = 0.18\nsamples = 10\nvalue = [1, 9]"] ;
172 -> 182 ;
183 [label="Fare <= 22.442\ngini = 0.375\nsamples = 4\nvalue = [1, 3]"] ;
182 -> 183 ;
184 [label="gini = 0.0\nsamples = 3\nvalue = [0, 3]"] ;
183 -> 184 ;
185 [label="gini = 0.0\nsamples = 1\nvalue = [1, 0]"] ;
183 -> 185 ;
186 [label="gini = 0.0\nsamples = 6\nvalue = [0, 6]"] ;
182 -> 186 ;
187 [label="Fare <= 24.808\ngini = 0.198\nsamples = 18\nvalue = [16, 2]"] ;
171 -> 187 ;
188 [label="Fare <= 23.725\ngini = 0.278\nsamples = 12\nvalue = [10, 2]"] ;
187 -> 188 ;
189 [label="gini = 0.0\nsamples = 2\nvalue = [2, 0]"] ;
188 -> 189 ;
190 [label="Fare <= 24.075\ngini = 0.32\nsamples = 10\nvalue = [8, 2]"] ;
188 -> 190 ;
191 [label="gini = 0.5\nsamples = 2\nvalue = [1, 1]"] ;
190 -> 191 ;
192 [label="gini = 0.219\nsamples = 8\nvalue = [7, 1]"] ;
190 -> 192 ;
193 [label="gini = 0.0\nsamples = 6\nvalue = [6, 0]"] ;
187 -> 193 ;
194 [label="Fare <= 25.965\ngini = 0.489\nsamples = 61\nvalue = [26, 35]"] ;
170 -> 194 ;
195 [label="gini = 0.0\nsamples = 2\nvalue = [0, 2]"] ;
194 -> 195 ;
196 [label="Fare <= 26.125\ngini = 0.493\nsamples = 59\nvalue = [26, 33]"] ;
194 -> 196 ;
197 [label="gini = 0.499\nsamples = 31\nvalue = [16, 15]"] ;
196 -> 197 ;
198 [label="Fare <= 26.469\ngini = 0.459\nsamples = 28\nvalue = [10, 18]"] ;
196 -> 198 ;
199 [label="Fare <= 26.267\ngini = 0.298\nsamples = 11\nvalue = [2, 9]"] ;
198 -> 199 ;
200 [label="gini = 0.444\nsamples = 6\nvalue = [2, 4]"] ;
199 -> 200 ;
201 [label="gini = 0.0\nsamples = 5\nvalue = [0, 5]"] ;
199 -> 201 ;
202 [label="Fare <= 26.775\ngini = 0.498\nsamples = 17\nvalue = [8, 9]"] ;
198 -> 202 ;
203 [label="gini = 0.498\nsamples = 15\nvalue = [7, 8]"] ;
202 -> 203 ;
204 [label="gini = 0.5\nsamples = 2\nvalue = [1, 1]"] ;
202 -> 204 ;
205 [label="Fare <= 27.825\ngini = 0.346\nsamples = 27\nvalue = [21, 6]"] ;
169 -> 205 ;
206 [label="Fare <= 27.735\ngini = 0.444\nsamples = 9\nvalue = [6, 3]"] ;
205 -> 206 ;
207 [label="gini = 0.32\nsamples = 5\nvalue = [4, 1]"] ;
206 -> 207 ;
208 [label="gini = 0.5\nsamples = 4\nvalue = [2, 2]"] ;
206 -> 208 ;
209 [label="Fare <= 28.856\ngini = 0.278\nsamples = 18\nvalue = [15, 3]"] ;
205 -> 209 ;
210 [label="gini = 0.0\nsamples = 8\nvalue = [8, 0]"] ;
209 -> 210 ;
211 [label="Fare <= 29.062\ngini = 0.42\nsamples = 10\nvalue = [7, 3]"] ;
209 -> 211 ;
212 [label="gini = 0.0\nsamples = 2\nvalue = [0, 2]"] ;
211 -> 212 ;
213 [label="Fare <= 29.413\ngini = 0.219\nsamples = 8\nvalue = [7, 1]"] ;
211 -> 213 ;
214 [label="gini = 0.0\nsamples = 5\nvalue = [5, 0]"] ;
213 -> 214 ;
215 [label="gini = 0.444\nsamples = 3\nvalue = [2, 1]"] ;
213 -> 215 ;
216 [label="Fare <= 30.598\ngini = 0.444\nsamples = 18\nvalue = [6, 12]"] ;
168 -> 216 ;
217 [label="Fare <= 30.035\ngini = 0.355\nsamples = 13\nvalue = [3, 10]"] ;
216 -> 217 ;
218 [label="gini = 0.278\nsamples = 6\nvalue = [1, 5]"] ;
217 -> 218 ;
219 [label="Fare <= 30.285\ngini = 0.408\nsamples = 7\nvalue = [2, 5]"] ;
217 -> 219 ;
220 [label="gini = 0.5\nsamples = 2\nvalue = [1, 1]"] ;
219 -> 220 ;
221 [label="gini = 0.32\nsamples = 5\nvalue = [1, 4]"] ;
219 -> 221 ;
222 [label="Fare <= 30.848\ngini = 0.48\nsamples = 5\nvalue = [3, 2]"] ;
216 -> 222 ;
223 [label="gini = 0.0\nsamples = 2\nvalue = [2, 0]"] ;
222 -> 223 ;
224 [label="gini = 0.444\nsamples = 3\nvalue = [1, 2]"] ;
222 -> 224 ;
225 [label="gini = 0.0\nsamples = 7\nvalue = [7, 0]"] ;
167 -> 225 ;
226 [label="Fare <= 31.854\ngini = 0.444\nsamples = 9\nvalue = [3, 6]"] ;
166 -> 226 ;
227 [label="gini = 0.375\nsamples = 4\nvalue = [1, 3]"] ;
226 -> 227 ;
228 [label="Fare <= 32.41\ngini = 0.48\nsamples = 5\nvalue = [2, 3]"] ;
226 -> 228 ;
229 [label="gini = 0.0\nsamples = 1\nvalue = [1, 0]"] ;
228 -> 229 ;
230 [label="Fare <= 32.75\ngini = 0.375\nsamples = 4\nvalue = [1, 3]"] ;
228 -> 230 ;
231 [label="gini = 0.0\nsamples = 1\nvalue = [0, 1]"] ;
230 -> 231 ;
232 [label="gini = 0.444\nsamples = 3\nvalue = [1, 2]"] ;
230 -> 232 ;
233 [label="gini = 0.0\nsamples = 8\nvalue = [8, 0]"] ;
97 -> 233 ;
234 [label="Fare <= 38.75\ngini = 0.469\nsamples = 16\nvalue = [6, 10]"] ;
96 -> 234 ;
235 [label="Fare <= 37.752\ngini = 0.494\nsamples = 9\nvalue = [4, 5]"] ;
234 -> 235 ;
236 [label="Fare <= 36.125\ngini = 0.469\nsamples = 8\nvalue = [3, 5]"] ;
235 -> 236 ;
237 [label="gini = 0.375\nsamples = 4\nvalue = [1, 3]"] ;
236 -> 237 ;
238 [label="Fare <= 36.877\ngini = 0.5\nsamples = 4\nvalue = [2, 2]"] ;
236 -> 238 ;
239 [label="gini = 0.5\nsamples = 2\nvalue = [1, 1]"] ;
238 -> 239 ;
240 [label="gini = 0.5\nsamples = 2\nvalue = [1, 1]"] ;
238 -> 240 ;
241 [label="gini = 0.0\nsamples = 1\nvalue = [1, 0]"] ;
235 -> 241 ;
242 [label="Fare <= 39.5\ngini = 0.408\nsamples = 7\nvalue = [2, 5]"] ;
234 -> 242 ;
243 [label="Fare <= 39.2\ngini = 0.32\nsamples = 5\nvalue = [1, 4]"] ;
242 -> 243 ;
244 [label="gini = 0.375\nsamples = 4\nvalue = [1, 3]"] ;
243 -> 244 ;
245 [label="gini = 0.0\nsamples = 1\nvalue = [0, 1]"] ;
243 -> 245 ;
246 [label="gini = 0.5\nsamples = 2\nvalue = [1, 1]"] ;
242 -> 246 ;
247 [label="Fare <= 48.3\ngini = 0.397\nsamples = 33\nvalue = [24, 9]"] ;
95 -> 247 ;
248 [label="Fare <= 41.99\ngini = 0.198\nsamples = 18\nvalue = [16, 2]"] ;
247 -> 248 ;
249 [label="Fare <= 40.852\ngini = 0.32\nsamples = 10\nvalue = [8, 2]"] ;
248 -> 249 ;
250 [label="gini = 0.0\nsamples = 7\nvalue = [7, 0]"] ;
249 -> 250 ;
251 [label="gini = 0.444\nsamples = 3\nvalue = [1, 2]"] ;
249 -> 251 ;
252 [label="gini = 0.0\nsamples = 8\nvalue = [8, 0]"] ;
248 -> 252 ;
253 [label="Fare <= 49.502\ngini = 0.498\nsamples = 15\nvalue = [8, 7]"] ;
247 -> 253 ;
254 [label="gini = 0.0\nsamples = 1\nvalue = [0, 1]"] ;
253 -> 254 ;
255 [label="Fare <= 50.987\ngini = 0.49\nsamples = 14\nvalue = [8, 6]"] ;
253 -> 255 ;
256 [label="Fare <= 49.752\ngini = 0.375\nsamples = 4\nvalue = [3, 1]"] ;
255 -> 256 ;
257 [label="gini = 0.5\nsamples = 2\nvalue = [1, 1]"] ;
256 -> 257 ;
258 [label="gini = 0.0\nsamples = 2\nvalue = [2, 0]"] ;
256 -> 258 ;
259 [label="Fare <= 51.671\ngini = 0.5\nsamples = 10\nvalue = [5, 5]"] ;
255 -> 259 ;
260 [label="gini = 0.0\nsamples = 1\nvalue = [0, 1]"] ;
259 -> 260 ;
261 [label="Fare <= 51.931\ngini = 0.494\nsamples = 9\nvalue = [5, 4]"] ;
259 -> 261 ;
262 [label="gini = 0.5\nsamples = 2\nvalue = [1, 1]"] ;
261 -> 262 ;
263 [label="gini = 0.49\nsamples = 7\nvalue = [4, 3]"] ;
261 -> 263 ;
264 [label="Fare <= 60.288\ngini = 0.368\nsamples = 37\nvalue = [9, 28]"] ;
94 -> 264 ;
265 [label="Fare <= 56.712\ngini = 0.302\nsamples = 27\nvalue = [5, 22]"] ;
264 -> 265 ;
266 [label="Fare <= 52.827\ngini = 0.375\nsamples = 20\nvalue = [5, 15]"] ;
265 -> 266 ;
267 [label="gini = 0.0\nsamples = 3\nvalue = [0, 3]"] ;
266 -> 267 ;
268 [label="Fare <= 54.05\ngini = 0.415\nsamples = 17\nvalue = [5, 12]"] ;
266 -> 268 ;
269 [label="gini = 0.48\nsamples = 5\nvalue = [2, 3]"] ;
268 -> 269 ;
270 [label="Fare <= 55.671\ngini = 0.375\nsamples = 12\nvalue = [3, 9]"] ;
268 -> 270 ;
271 [label="gini = 0.0\nsamples = 3\nvalue = [0, 3]"] ;
270 -> 271 ;
272 [label="Fare <= 56.198\ngini = 0.444\nsamples = 9\nvalue = [3, 6]"] ;
270 -> 272 ;
273 [label="gini = 0.5\nsamples = 2\nvalue = [1, 1]"] ;
272 -> 273 ;
274 [label="gini = 0.408\nsamples = 7\nvalue = [2, 5]"] ;
272 -> 274 ;
275 [label="gini = 0.0\nsamples = 7\nvalue = [0, 7]"] ;
265 -> 275 ;
276 [label="Fare <= 62.669\ngini = 0.48\nsamples = 10\nvalue = [4, 6]"] ;
264 -> 276 ;
277 [label="gini = 0.0\nsamples = 3\nvalue = [3, 0]"] ;
276 -> 277 ;
278 [label="Fare <= 65.8\ngini = 0.245\nsamples = 7\nvalue = [1, 6]"] ;
276 -> 278 ;
279 [label="gini = 0.0\nsamples = 3\nvalue = [0, 3]"] ;
278 -> 279 ;
280 [label="Fare <= 67.95\ngini = 0.375\nsamples = 4\nvalue = [1, 3]"] ;
278 -> 280 ;
281 [label="gini = 0.5\nsamples = 2\nvalue = [1, 1]"] ;
280 -> 281 ;
282 [label="gini = 0.0\nsamples = 2\nvalue = [0, 2]"] ;
280 -> 282 ;
283 [label="Fare <= 70.275\ngini = 0.231\nsamples = 15\nvalue = [13, 2]"] ;
93 -> 283 ;
284 [label="gini = 0.0\nsamples = 7\nvalue = [7, 0]"] ;
283 -> 284 ;
285 [label="Fare <= 72.392\ngini = 0.375\nsamples = 8\nvalue = [6, 2]"] ;
283 -> 285 ;
286 [label="Fare <= 71.142\ngini = 0.444\nsamples = 3\nvalue = [1, 2]"] ;
285 -> 286 ;
287 [label="gini = 0.5\nsamples = 2\nvalue = [1, 1]"] ;
286 -> 287 ;
288 [label="gini = 0.0\nsamples = 1\nvalue = [0, 1]"] ;
286 -> 288 ;
289 [label="gini = 0.0\nsamples = 5\nvalue = [5, 0]"] ;
285 -> 289 ;
290 [label="Fare <= 77.008\ngini = 0.362\nsamples = 97\nvalue = [23, 74]"] ;
92 -> 290 ;
291 [label="gini = 0.0\nsamples = 5\nvalue = [0, 5]"] ;
290 -> 291 ;
292 [label="Fare <= 77.623\ngini = 0.375\nsamples = 92\nvalue = [23, 69]"] ;
290 -> 292 ;
293 [label="gini = 0.0\nsamples = 2\nvalue = [2, 0]"] ;
292 -> 293 ;
294 [label="Fare <= 211.419\ngini = 0.358\nsamples = 90\nvalue = [21, 69]"] ;
292 -> 294 ;
295 [label="Fare <= 78.558\ngini = 0.327\nsamples = 73\nvalue = [15, 58]"] ;
294 -> 295 ;
296 [label="gini = 0.0\nsamples = 5\nvalue = [0, 5]"] ;
295 -> 296 ;
297 [label="Fare <= 79.825\ngini = 0.344\nsamples = 68\nvalue = [15, 53]"] ;
295 -> 297 ;
298 [label="Fare <= 79.425\ngini = 0.494\nsamples = 9\nvalue = [4, 5]"] ;
297 -> 298 ;
299 [label="Fare <= 79.025\ngini = 0.5\nsamples = 6\nvalue = [3, 3]"] ;
298 -> 299 ;
300 [label="gini = 0.5\nsamples = 2\nvalue = [1, 1]"] ;
299 -> 300 ;
301 [label="gini = 0.5\nsamples = 4\nvalue = [2, 2]"] ;
299 -> 301 ;
302 [label="gini = 0.444\nsamples = 3\nvalue = [1, 2]"] ;
298 -> 302 ;
303 [label="Fare <= 159.165\ngini = 0.303\nsamples = 59\nvalue = [11, 48]"] ;
297 -> 303 ;
304 [label="Fare <= 149.035\ngini = 0.324\nsamples = 54\nvalue = [11, 43]"] ;
303 -> 304 ;
305 [label="Fare <= 116.638\ngini = 0.282\nsamples = 47\nvalue = [8, 39]"] ;
304 -> 305 ;
306 [label="Fare <= 99.963\ngini = 0.327\nsamples = 34\nvalue = [7, 27]"] ;
305 -> 306 ;
307 [label="Fare <= 84.987\ngini = 0.227\nsamples = 23\nvalue = [3, 20]"] ;
306 -> 307 ;
308 [label="Fare <= 83.317\ngini = 0.32\nsamples = 10\nvalue = [2, 8]"] ;
307 -> 308 ;
309 [label="Fare <= 82.015\ngini = 0.219\nsamples = 8\nvalue = [1, 7]"] ;
308 -> 309 ;
310 [label="gini = 0.0\nsamples = 3\nvalue = [0, 3]"] ;
309 -> 310 ;
311 [label="Fare <= 82.665\ngini = 0.32\nsamples = 5\nvalue = [1, 4]"] ;
309 -> 311 ;
312 [label="gini = 0.5\nsamples = 2\nvalue = [1, 1]"] ;
311 -> 312 ;
313 [label="gini = 0.0\nsamples = 3\nvalue = [0, 3]"] ;
311 -> 313 ;
314 [label="gini = 0.5\nsamples = 2\nvalue = [1, 1]"] ;
308 -> 314 ;
315 [label="Fare <= 89.552\ngini = 0.142\nsamples = 13\nvalue = [1, 12]"] ;
307 -> 315 ;
316 [label="gini = 0.0\nsamples = 5\nvalue = [0, 5]"] ;
315 -> 316 ;
317 [label="Fare <= 90.54\ngini = 0.219\nsamples = 8\nvalue = [1, 7]"] ;
315 -> 317 ;
318 [label="gini = 0.375\nsamples = 4\nvalue = [1, 3]"] ;
317 -> 318 ;
319 [label="gini = 0.0\nsamples = 4\nvalue = [0, 4]"] ;
317 -> 319 ;
320 [label="Fare <= 109.892\ngini = 0.463\nsamples = 11\nvalue = [4, 7]"] ;
306 -> 320 ;
321 [label="Fare <= 107.663\ngini = 0.5\nsamples = 4\nvalue = [2, 2]"] ;
320 -> 321 ;
322 [label="gini = 0.5\nsamples = 2\nvalue = [1, 1]"] ;
321 -> 322 ;
323 [label="gini = 0.5\nsamples = 2\nvalue = [1, 1]"] ;
321 -> 323 ;
324 [label="Fare <= 112.079\ngini = 0.408\nsamples = 7\nvalue = [2, 5]"] ;
320 -> 324 ;
325 [label="gini = 0.375\nsamples = 4\nvalue = [1, 3]"] ;
324 -> 325 ;
326 [label="gini = 0.444\nsamples = 3\nvalue = [1, 2]"] ;
324 -> 326 ;
327 [label="Fare <= 135.067\ngini = 0.142\nsamples = 13\nvalue = [1, 12]"] ;
305 -> 327 ;
328 [label="gini = 0.0\nsamples = 8\nvalue = [0, 8]"] ;
327 -> 328 ;
329 [label="Fare <= 141.077\ngini = 0.32\nsamples = 5\nvalue = [1, 4]"] ;
327 -> 329 ;
330 [label="gini = 0.444\nsamples = 3\nvalue = [1, 2]"] ;
329 -> 330 ;
331 [label="gini = 0.0\nsamples = 2\nvalue = [0, 2]"] ;
329 -> 331 ;
332 [label="Fare <= 152.506\ngini = 0.49\nsamples = 7\nvalue = [3, 4]"] ;
304 -> 332 ;
333 [label="gini = 0.5\nsamples = 4\nvalue = [2, 2]"] ;
332 -> 333 ;
334 [label="gini = 0.444\nsamples = 3\nvalue = [1, 2]"] ;
332 -> 334 ;
335 [label="gini = 0.0\nsamples = 5\nvalue = [0, 5]"] ;
303 -> 335 ;
336 [label="Fare <= 224.652\ngini = 0.457\nsamples = 17\nvalue = [6, 11]"] ;
294 -> 336 ;
337 [label="gini = 0.0\nsamples = 2\nvalue = [2, 0]"] ;
336 -> 337 ;
338 [label="Fare <= 387.665\ngini = 0.391\nsamples = 15\nvalue = [4, 11]"] ;
336 -> 338 ;
339 [label="Fare <= 262.688\ngini = 0.444\nsamples = 12\nvalue = [4, 8]"] ;
338 -> 339 ;
340 [label="Fare <= 254.948\ngini = 0.375\nsamples = 8\nvalue = [2, 6]"] ;
339 -> 340 ;
341 [label="Fare <= 237.523\ngini = 0.444\nsamples = 6\nvalue = [2, 4]"] ;
340 -> 341 ;
342 [label="gini = 0.375\nsamples = 4\nvalue = [1, 3]"] ;
341 -> 342 ;
343 [label="gini = 0.5\nsamples = 2\nvalue = [1, 1]"] ;
341 -> 343 ;
344 [label="gini = 0.0\nsamples = 2\nvalue = [0, 2]"] ;
340 -> 344 ;
345 [label="gini = 0.5\nsamples = 4\nvalue = [2, 2]"] ;
339 -> 345 ;
346 [label="gini = 0.0\nsamples = 3\nvalue = [0, 3]"] ;
338 -> 346 ;
}