digraph Tree {
node [shape=box] ;
0 [label="Education <= 33.5\ngini = 0.27\nsamples = 4410\nvalue = [3699, 711]"] ;
1 [label="Education <= 21.5\ngini = 0.371\nsamples = 1722\nvalue = [1299, 423]"] ;
0 -> 1 [labeldistance=2.5, labelangle=45, headlabel="True"] ;
2 [label="Education <= 20.5\ngini = 0.497\nsamples = 123\nvalue = [57, 66]"] ;
1 -> 2 ;
3 [label="Education <= 18.5\ngini = 0.49\nsamples = 84\nvalue = [36, 48]"] ;
2 -> 3 ;
4 [label="gini = 0.5\nsamples = 24\nvalue = [12, 12]"] ;
3 -> 4 ;
5 [label="Education <= 19.5\ngini = 0.48\nsamples = 60\nvalue = [24, 36]"] ;
3 -> 5 ;
6 [label="gini = 0.444\nsamples = 27\nvalue = [9, 18]"] ;
5 -> 6 ;
7 [label="gini = 0.496\nsamples = 33\nvalue = [15, 18]"] ;
5 -> 7 ;
8 [label="gini = 0.497\nsamples = 39\nvalue = [21, 18]"] ;
2 -> 8 ;
9 [label="Education <= 26.5\ngini = 0.347\nsamples = 1599\nvalue = [1242, 357]"] ;
1 -> 9 ;
10 [label="Education <= 25.5\ngini = 0.404\nsamples = 363\nvalue = [261, 102]"] ;
9 -> 10 ;
11 [label="Education <= 24.5\ngini = 0.393\nsamples = 246\nvalue = [180, 66]"] ;
10 -> 11 ;
12 [label="Education <= 22.5\ngini = 0.408\nsamples = 168\nvalue = [120, 48]"] ;
11 -> 12 ;
13 [label="gini = 0.43\nsamples = 48\nvalue = [33, 15]"] ;
12 -> 13 ;
14 [label="Education <= 23.5\ngini = 0.399\nsamples = 120\nvalue = [87, 33]"] ;
12 -> 14 ;
15 [label="gini = 0.408\nsamples = 42\nvalue = [30, 12]"] ;
14 -> 15 ;
16 [label="gini = 0.393\nsamples = 78\nvalue = [57, 21]"] ;
14 -> 16 ;
17 [label="gini = 0.355\nsamples = 78\nvalue = [60, 18]"] ;
11 -> 17 ;
18 [label="gini = 0.426\nsamples = 117\nvalue = [81, 36]"] ;
10 -> 18 ;
19 [label="Education <= 27.5\ngini = 0.327\nsamples = 1236\nvalue = [981, 255]"] ;
9 -> 19 ;
20 [label="gini = 0.117\nsamples = 144\nvalue = [135, 9]"] ;
19 -> 20 ;
21 [label="Education <= 29.5\ngini = 0.349\nsamples = 1092\nvalue = [846, 246]"] ;
19 -> 21 ;
22 [label="Education <= 28.5\ngini = 0.4\nsamples = 348\nvalue = [252, 96]"] ;
21 -> 22 ;
23 [label="gini = 0.413\nsamples = 144\nvalue = [102, 42]"] ;
22 -> 23 ;
24 [label="gini = 0.389\nsamples = 204\nvalue = [150, 54]"] ;
22 -> 24 ;
25 [label="Education <= 30.5\ngini = 0.322\nsamples = 744\nvalue = [594, 150]"] ;
21 -> 25 ;
26 [label="gini = 0.255\nsamples = 180\nvalue = [153, 27]"] ;
25 -> 26 ;
27 [label="Education <= 31.5\ngini = 0.341\nsamples = 564\nvalue = [441, 123]"] ;
25 -> 27 ;
28 [label="gini = 0.386\nsamples = 207\nvalue = [153, 54]"] ;
27 -> 28 ;
29 [label="Education <= 32.5\ngini = 0.312\nsamples = 357\nvalue = [288, 69]"] ;
27 -> 29 ;
30 [label="gini = 0.296\nsamples = 183\nvalue = [150, 33]"] ;
29 -> 30 ;
31 [label="gini = 0.328\nsamples = 174\nvalue = [138, 36]"] ;
29 -> 31 ;
32 [label="Education <= 54.5\ngini = 0.191\nsamples = 2688\nvalue = [2400, 288]"] ;
0 -> 32 [labeldistance=2.5, labelangle=-45, headlabel="False"] ;
33 [label="Education <= 53.5\ngini = 0.184\nsamples = 2481\nvalue = [2226, 255]"] ;
32 -> 33 ;
34 [label="Education <= 49.5\ngini = 0.188\nsamples = 2427\nvalue = [2172, 255]"] ;
33 -> 34 ;
35 [label="Education <= 35.5\ngini = 0.182\nsamples = 2169\nvalue = [1950, 219]"] ;
34 -> 35 ;
36 [label="Education <= 34.5\ngini = 0.215\nsamples = 465\nvalue = [408, 57]"] ;
35 -> 36 ;
37 [label="gini = 0.206\nsamples = 231\nvalue = [204, 27]"] ;
36 -> 37 ;
38 [label="gini = 0.224\nsamples = 234\nvalue = [204, 30]"] ;
36 -> 38 ;
39 [label="Education <= 38.5\ngini = 0.172\nsamples = 1704\nvalue = [1542, 162]"] ;
35 -> 39 ;
40 [label="Education <= 37.5\ngini = 0.146\nsamples = 531\nvalue = [489, 42]"] ;
39 -> 40 ;
41 [label="Education <= 36.5\ngini = 0.181\nsamples = 357\nvalue = [321, 36]"] ;
40 -> 41 ;
42 [label="gini = 0.159\nsamples = 207\nvalue = [189, 18]"] ;
41 -> 42 ;
43 [label="gini = 0.211\nsamples = 150\nvalue = [132, 18]"] ;
41 -> 43 ;
44 [label="gini = 0.067\nsamples = 174\nvalue = [168, 6]"] ;
40 -> 44 ;
45 [label="Education <= 41.5\ngini = 0.184\nsamples = 1173\nvalue = [1053, 120]"] ;
39 -> 45 ;
46 [label="Education <= 40.5\ngini = 0.215\nsamples = 417\nvalue = [366, 51]"] ;
45 -> 46 ;
47 [label="Education <= 39.5\ngini = 0.198\nsamples = 297\nvalue = [264, 33]"] ;
46 -> 47 ;
48 [label="gini = 0.245\nsamples = 126\nvalue = [108, 18]"] ;
47 -> 48 ;
49 [label="gini = 0.16\nsamples = 171\nvalue = [156, 15]"] ;
47 -> 49 ;
50 [label="gini = 0.255\nsamples = 120\nvalue = [102, 18]"] ;
46 -> 50 ;
51 [label="Education <= 43.5\ngini = 0.166\nsamples = 756\nvalue = [687, 69]"] ;
45 -> 51 ;
52 [label="Education <= 42.5\ngini = 0.097\nsamples = 234\nvalue = [222, 12]"] ;
51 -> 52 ;
53 [label="gini = 0.083\nsamples = 138\nvalue = [132, 6]"] ;
52 -> 53 ;
54 [label="gini = 0.117\nsamples = 96\nvalue = [90, 6]"] ;
52 -> 54 ;
55 [label="Education <= 44.5\ngini = 0.195\nsamples = 522\nvalue = [465, 57]"] ;
51 -> 55 ;
56 [label="gini = 0.298\nsamples = 99\nvalue = [81, 18]"] ;
55 -> 56 ;
57 [label="Education <= 45.5\ngini = 0.167\nsamples = 423\nvalue = [384, 39]"] ;
55 -> 57 ;
58 [label="gini = 0.093\nsamples = 123\nvalue = [117, 6]"] ;
57 -> 58 ;
59 [label="Education <= 48.5\ngini = 0.196\nsamples = 300\nvalue = [267, 33]"] ;
57 -> 59 ;
60 [label="Education <= 47.5\ngini = 0.209\nsamples = 228\nvalue = [201, 27]"] ;
59 -> 60 ;
61 [label="Education <= 46.5\ngini = 0.215\nsamples = 171\nvalue = [150, 21]"] ;
60 -> 61 ;
62 [label="gini = 0.213\nsamples = 99\nvalue = [87, 12]"] ;
61 -> 62 ;
63 [label="gini = 0.219\nsamples = 72\nvalue = [63, 9]"] ;
61 -> 63 ;
64 [label="gini = 0.188\nsamples = 57\nvalue = [51, 6]"] ;
60 -> 64 ;
65 [label="gini = 0.153\nsamples = 72\nvalue = [66, 6]"] ;
59 -> 65 ;
66 [label="Education <= 50.5\ngini = 0.24\nsamples = 258\nvalue = [222, 36]"] ;
34 -> 66 ;
67 [label="gini = 0.278\nsamples = 90\nvalue = [75, 15]"] ;
66 -> 67 ;
68 [label="Education <= 51.5\ngini = 0.219\nsamples = 168\nvalue = [147, 21]"] ;
66 -> 68 ;
69 [label="gini = 0.188\nsamples = 57\nvalue = [51, 6]"] ;
68 -> 69 ;
70 [label="Education <= 52.5\ngini = 0.234\nsamples = 111\nvalue = [96, 15]"] ;
68 -> 70 ;
71 [label="gini = 0.278\nsamples = 54\nvalue = [45, 9]"] ;
70 -> 71 ;
72 [label="gini = 0.188\nsamples = 57\nvalue = [51, 6]"] ;
70 -> 72 ;
73 [label="gini = 0.0\nsamples = 54\nvalue = [54, 0]"] ;
33 -> 73 ;
74 [label="Education <= 58.5\ngini = 0.268\nsamples = 207\nvalue = [174, 33]"] ;
32 -> 74 ;
75 [label="Education <= 57.5\ngini = 0.324\nsamples = 162\nvalue = [129, 33]"] ;
74 -> 75 ;
76 [label="Education <= 56.5\ngini = 0.255\nsamples = 120\nvalue = [102, 18]"] ;
75 -> 76 ;
77 [label="Education <= 55.5\ngini = 0.278\nsamples = 108\nvalue = [90, 18]"] ;
76 -> 77 ;
78 [label="gini = 0.236\nsamples = 66\nvalue = [57, 9]"] ;
77 -> 78 ;
79 [label="gini = 0.337\nsamples = 42\nvalue = [33, 9]"] ;
77 -> 79 ;
80 [label="gini = 0.0\nsamples = 12\nvalue = [12, 0]"] ;
76 -> 80 ;
81 [label="gini = 0.459\nsamples = 42\nvalue = [27, 15]"] ;
75 -> 81 ;
82 [label="gini = 0.0\nsamples = 45\nvalue = [45, 0]"] ;
74 -> 82 ;
}